Language model created by QuickLM on Tue Jan  8 22:43:22 EST 2019
Copyright (c) 1996-2010 Carnegie Mellon University and Alexander I. Rudnicky

The model is in standard ARPA format, designed by Doug Paul while he was at MITRE.

The code that was used to produce this language model is available in Open Source.
Please visit http://www.speech.cs.cmu.edu/tools/ for more information

The (fixed) discount mass is 0.5. The backoffs are computed using the ratio method.
This model based on a corpus of 8 sentences and 11 words

\data\
ngram 1=11
ngram 2=17
ngram 3=17

\1-grams:
-0.9542 </s> -0.3010
-0.9542 <s> -0.2499
-1.5563 ALEXA -0.2762
-1.8573 BLUE -0.2499
-1.8573 CLEAR -0.2499
-1.8573 GREEN -0.2499
-1.0792 MATRIX -0.2499
-1.8573 RED -0.2499
-1.2553 RING -0.2762
-1.5563 START -0.2499
-1.5563 STOP -0.2499

\2-grams:
-0.9031 <s> ALEXA 0.0000
-0.4260 <s> MATRIX 0.0000
-0.6021 ALEXA START 0.0000
-0.6021 ALEXA STOP 0.0000
-0.3010 BLUE </s> -0.3010
-0.3010 CLEAR </s> -0.3010
-0.3010 GREEN </s> -0.3010
-0.4771 MATRIX RING 0.0000
-1.0792 MATRIX START 0.0000
-1.0792 MATRIX STOP 0.0000
-0.3010 RED </s> -0.3010
-0.9031 RING BLUE 0.0000
-0.9031 RING CLEAR 0.0000
-0.9031 RING GREEN 0.0000
-0.9031 RING RED 0.0000
-0.3010 START </s> -0.3010
-0.3010 STOP </s> -0.3010

\3-grams:
-0.6021 <s> ALEXA START
-0.6021 <s> ALEXA STOP
-0.4771 <s> MATRIX RING
-1.0792 <s> MATRIX START
-1.0792 <s> MATRIX STOP
-0.3010 ALEXA START </s>
-0.3010 ALEXA STOP </s>
-0.9031 MATRIX RING BLUE
-0.9031 MATRIX RING CLEAR
-0.9031 MATRIX RING GREEN
-0.9031 MATRIX RING RED
-0.3010 MATRIX START </s>
-0.3010 MATRIX STOP </s>
-0.3010 RING BLUE </s>
-0.3010 RING CLEAR </s>
-0.3010 RING GREEN </s>
-0.3010 RING RED </s>

\end\